{
  "name": "LeNet",
  "layer": [
    {
      "name": "mnist",
      "type": "Data",
      "top": [
        "data",
        "label"
      ],
      "include": [
        {
          "phase": 0
        }
      ],
      "phase": 0,
      "transform_param": {
        "scale": 0.00390625
      },
      "data_param": {
        "source": "mnist_train_lmdb",
        "batch_size": 64,
        "backend": 1
      }
    },
    {
      "name": "label_mnist_1_split",
      "type": "Split",
      "bottom": [
        "label"
      ],
      "top": [
        "label_mnist_1_split_0",
        "label_mnist_1_split_1"
      ],
      "phase": 0
    },
    {
      "name": "reshapeA",
      "type": "Reshape",
      "bottom": [
        "data"
      ],
      "top": [
        "reshapeA"
      ],
      "phase": 0,
      "reshape_param": {
        "shape": {
          "dim": [
            -1,
            1,
            28,
            28
          ]
        }
      }
    },
    {
      "name": "conv1",
      "type": "Convolution",
      "bottom": [
        "reshapeA"
      ],
      "top": [
        "conv1"
      ],
      "param": [
        {
          "lr_mult": 1.0
        },
        {
          "lr_mult": 2.0
        }
      ],
      "blobs": [
        {
          "data": [
            0.21597634255886078,
            1.2109564542770386,
            0.977977991104126,
            -0.1614694595336914,
            -1.0284398794174194,
            -0.05210062116384506,
            0.731853187084198,
            0.8914117813110352,
            -0.8571951985359192,
            -0.28376638889312744,
            -0.15666034817695618,
            1.0843467712402344,
            -0.46138128638267517,
            -0.6471186876296997,
            -0.920276403427124,
            0.13349902629852295,
            0.2765313386917114,
            0.28108492493629456,
            0.545006275177002,
            1.2183102369308472,
            0.7163939476013184,
            0.5598970651626587,
            0.39278340339660645,
            -0.18687161803245544,
            -0.29771745204925537,
            0.2068832516670227,
            0.3364088833332062,
            -0.7171193361282349,
            -1.8200838565826416,
            -1.1934584379196167,
            -1.2658412456512451,
            -0.4492775499820709,
            -0.5818211436271667,
            0.03379756584763527,
            -0.05124358832836151,
            1.3951587677001953,
            -0.44955000281333923,
            -0.31970372796058655,
            -0.02283579856157303,
            0.6981725096702576,
            -0.6281600594520569,
            -0.14829830825328827,
            0.21549032628536224,
            0.42040613293647766,
            -0.9475341439247131,
            0.5822440385818481,
            1.187488317489624,
            0.03748486563563347
          ],
          "shape": {
            "dim": [
              3,
              1,
              4,
              4
            ]
          }
        },
        {
          "data": [
            -0.9040525555610657,
            -0.8581481575965881,
            -1.1547056436538696
          ],
          "shape": {
            "dim": [
              3
            ]
          }
        }
      ],
      "phase": 0,
      "convolution_param": {
        "num_output": 3,
        "kernel_size": [
          4
        ],
        "stride": [
          2
        ],
        "weight_filler": {
          "type": "xavier"
        },
        "bias_filler": {
          "type": "constant"
        }
      }
    },
    {
      "name": "pool1",
      "type": "Pooling",
      "bottom": [
        "conv1"
      ],
      "top": [
        "pool1"
      ],
      "phase": 0,
      "pooling_param": {
        "pool": 0,
        "kernel_size": 4,
        "stride": 3
      }
    },
    {
      "name": "reshapeB",
      "type": "Reshape",
      "bottom": [
        "pool1"
      ],
      "top": [
        "reshapeB"
      ],
      "phase": 0,
      "reshape_param": {
        "shape": {
          "dim": [
            -1,
            48
          ]
        }
      }
    },
    {
      "name": "ip1",
      "type": "InnerProduct",
      "bottom": [
        "reshapeB"
      ],
      "top": [
        "ip1"
      ],
      "param": [
        {
          "lr_mult": 1.0
        },
        {
          "lr_mult": 2.0
        }
      ],
      "blobs": [
        {
          "data": [
            -0.19260115921497345,
            -0.7475550174713135,
            0.3026134669780731,
            -0.028963662683963776,
            -0.40550005435943604,
            -0.6808698773384094,
            -0.02095378376543522,
            0.32344144582748413,
            0.15759192407131195,
            0.6588495373725891,
            -0.002171644475311041,
            -0.3266811966896057,
            -0.23192554712295532,
            0.37904947996139526,
            0.02977944165468216,
            0.12320968508720398,
            0.228580504655838,
            -0.10642121732234955,
            0.060188181698322296,
            -0.09055908024311066,
            -0.9494438171386719,
            -0.3273474872112274,
            -0.07335803657770157,
            -0.4961841106414795,
            -0.6601564288139343,
            -0.2541396915912628,
            0.5791152119636536,
            0.41979730129241943,
            -0.4438294768333435,
            -0.04468406364321709,
            0.35825979709625244,
            -0.022190487012267113,
            0.02771974354982376,
            0.3194657266139984,
            0.18267333507537842,
            -0.18609213829040527,
            0.4473903179168701,
            -0.007508204784244299,
            0.34191635251045227,
            0.21828535199165344,
            0.2425285279750824,
            0.19934894144535065,
            0.29671841859817505,
            0.34669867157936096,
            0.3978581428527832,
            -0.26962926983833313,
            0.020853379741311073,
            0.19512659311294556,
            -0.04905611276626587,
            -0.18134097754955292,
            0.08366551995277405,
            -0.21139124035835266,
            0.6386938095092773,
            0.5151742696762085,
            -0.21798017621040344,
            0.13922648131847382,
            -0.2840830385684967,
            0.15393111109733582,
            0.2745751440525055,
            0.3161143660545349,
            -0.3268420100212097,
            0.15051493048667908,
            -0.3174034357070923,
            -0.3110356330871582,
            -0.15283136069774628,
            -0.040033552795648575,
            -0.26299431920051575,
            -0.035690709948539734,
            -0.30774036049842834,
            -0.5558573007583618,
            0.19271817803382874,
            0.5393871068954468,
            0.13128603994846344,
            -0.3345051109790802,
            0.3500106632709503,
            -0.12624399363994598,
            -0.3407924473285675,
            -0.6754624247550964,
            0.131461963057518,
            -0.31821998953819275,
            -0.093403160572052,
            0.09388341009616852,
            0.3462750017642975,
            0.4313470125198364,
            -0.18975898623466492,
            0.03613528981804848,
            0.335635244846344,
            0.1523979902267456,
            0.06807871907949448,
            0.5756347179412842,
            -0.09637665748596191,
            -0.1514691561460495,
            0.31047773361206055,
            0.4454439580440521,
            0.46756038069725037,
            0.1170058622956276,
            -0.21747316420078278,
            -0.1482880711555481,
            0.35351234674453735,
            0.3558347821235657,
            -0.21183300018310547,
            0.03288125991821289,
            0.8896980881690979,
            0.00839309860020876,
            -0.18642657995224,
            -0.19991865754127502,
            -0.3957436978816986,
            -0.025933241471648216,
            0.0896453782916069,
            0.2525024116039276,
            -0.173934668302536,
            -0.48372793197631836,
            -0.00024601767654530704,
            -0.11599458009004593,
            -0.21233704686164856,
            -0.5985415577888489,
            0.20469218492507935,
            0.371401846408844,
            0.20624224841594696,
            -0.10866262763738632,
            -0.47318214178085327,
            -0.41249123215675354,
            -0.33262884616851807,
            0.28203943371772766,
            -0.2022601217031479,
            -0.03542756661772728,
            0.3319246768951416,
            -0.025568537414073944,
            -0.05207359045743942,
            -0.45109137892723083,
            -0.2308061271905899,
            -0.3896135091781616,
            -0.12072746455669403,
            -0.10821057111024857,
            0.44093605875968933,
            0.3838101625442505,
            0.3142573833465576,
            0.07194963842630386,
            0.1941535323858261,
            0.05336051806807518,
            0.3418121635913849,
            0.20638033747673035,
            0.330241322517395,
            0.35898423194885254,
            -0.1891205906867981,
            -0.24055273830890656,
            0.3049126863479614,
            0.15508908033370972,
            0.05629311501979828,
            0.09470459818840027,
            0.12886346876621246,
            -0.11490973830223083,
            0.08178862929344177,
            0.7632041573524475,
            -0.02206776663661003,
            -0.23214974999427795,
            0.03373623639345169,
            -0.730230450630188,
            -0.46954280138015747,
            0.09871567040681839,
            0.2531419098377228,
            0.000459322240203619,
            -0.2356320321559906,
            -0.5430868268013,
            -0.1005590409040451,
            0.17644375562667847,
            0.16234271228313446,
            0.08467347919940948,
            -0.10579138994216919,
            0.6978562474250793,
            0.5030664801597595,
            -0.1915612369775772,
            0.42422088980674744,
            -0.19232851266860962,
            -0.467803955078125,
            -0.5099616646766663,
            -0.06903431564569473,
            -0.14406718313694,
            -0.07049880176782608,
            -0.12890955805778503,
            0.3211742639541626,
            0.02377530187368393,
            0.6387889385223389,
            0.0735478475689888,
            -0.3992856442928314,
            -0.6406418085098267,
            0.6136645078659058,
            -0.032576825469732285,
            -0.16799385845661163,
            0.7971503138542175,
            0.5747736692428589,
            0.16648238897323608,
            -0.295073539018631,
            -0.3819677531719208,
            0.1608964204788208,
            -0.0011292316485196352,
            0.1731162667274475,
            -0.05373936519026756,
            0.027924269437789917,
            0.2839149534702301,
            0.18118999898433685,
            0.6384881734848022,
            0.7989100217819214,
            -0.1448507308959961,
            0.36647042632102966,
            0.1304410845041275,
            -0.8490705490112305,
            -1.1002641916275024,
            0.09848456084728241,
            0.2429761439561844,
            0.16027864813804626,
            0.040141571313142776,
            -0.2939566671848297,
            -0.1903170347213745,
            0.475246399641037,
            0.6717415452003479,
            -0.560664713382721,
            0.03426153585314751,
            0.5717816352844238,
            -0.7130066752433777,
            -0.25180941820144653,
            0.3441687822341919,
            0.7757896780967712,
            0.26794347167015076,
            0.03555963188409805,
            0.006325797643512487,
            0.15518230199813843,
            -0.13423220813274384,
            -0.18772561848163605,
            0.4433847665786743,
            -0.5171087980270386,
            -0.29157906770706177,
            -0.3104988634586334,
            -0.1279960423707962,
            -0.38040822744369507,
            0.20165276527404785,
            -0.1481226682662964,
            -0.22140680253505707,
            0.5518946647644043,
            0.5533909201622009,
            -0.5722075700759888,
            -0.1726517230272293,
            -0.20725172758102417,
            -0.07145177572965622,
            -0.05662097409367561,
            -0.10190709680318832,
            0.05276793614029884,
            0.6638689637184143,
            -0.013676499016582966,
            0.25497564673423767,
            0.13755211234092712,
            -0.20457224547863007,
            0.15413396060466766,
            0.02259787917137146,
            0.1772347390651703,
            0.3281153738498688,
            0.049912501126527786,
            -0.38808760046958923,
            -0.2231059968471527,
            0.16507327556610107,
            -0.14261001348495483,
            -0.32855358719825745,
            -0.1449626088142395,
            -0.037343643605709076,
            -0.28748607635498047,
            0.18155308067798615,
            -0.22302621603012085,
            -0.5327304601669312,
            0.2968733310699463,
            -0.2656739056110382,
            -0.21538859605789185,
            0.10842613875865936,
            -0.6831669211387634,
            -0.03816905990242958,
            0.3355395495891571,
            -0.059478964656591415,
            -0.2057434469461441,
            0.6357977986335754,
            -0.2616073489189148,
            -0.4396958649158478,
            -0.27419206500053406,
            -0.06940490752458572,
            0.05915864557027817,
            0.08640563488006592,
            -0.141189843416214,
            0.43344756960868835,
            -0.03394755348563194,
            -0.3539683520793915,
            0.10113086551427841,
            0.26543712615966797,
            0.3030971884727478,
            0.232192724943161,
            -0.3349643647670746,
            -0.20302250981330872,
            -0.5965287685394287,
            -0.34104758501052856,
            -0.13589106500148773,
            0.3214373290538788,
            0.7222237586975098,
            0.17935673892498016,
            0.30067992210388184,
            -0.16044795513153076,
            0.14105451107025146,
            -0.005754044745117426,
            0.24198253452777863,
            0.08216433972120285,
            -0.3994017243385315,
            -0.42747026681900024,
            0.7401752471923828,
            0.08606985956430435,
            -0.36948975920677185,
            0.22062404453754425,
            -0.1581810712814331,
            -0.10229414701461792,
            0.5647061467170715,
            0.018613362684845924,
            0.0023717849981039762,
            0.35636386275291443,
            0.2073572278022766,
            0.17339158058166504,
            -0.12430897355079651,
            -0.1303146481513977,
            0.6463239789009094,
            0.17962472140789032,
            -0.5707989931106567,
            -0.05881831794977188,
            0.5449299216270447,
            0.126113623380661,
            -0.039994221180677414,
            0.4107658565044403,
            -0.4700491726398468,
            -0.07325702905654907,
            -0.12842506170272827,
            -0.04660515487194061,
            0.15361818671226501,
            -0.1864817589521408,
            -0.5537300705909729,
            -0.7197829484939575,
            0.6722521185874939,
            0.3552198112010956,
            -0.1424521803855896,
            0.7670897245407104,
            0.05188799276947975,
            -0.3590750992298126,
            0.13436658680438995,
            0.030317749828100204,
            -0.13358010351657867,
            -0.20468966662883759,
            0.045353230088949203,
            0.04263869673013687,
            0.38208675384521484,
            0.3148043155670166,
            0.1606224626302719,
            0.3024844527244568,
            0.2528795301914215,
            -0.44057196378707886,
            -0.10838596522808075,
            -0.0294172540307045,
            -0.11835265904664993,
            0.14090339839458466,
            -0.24413524568080902,
            0.30751556158065796,
            0.28831276297569275,
            0.08823052048683167,
            -0.3157917857170105,
            0.10837966948747635,
            -0.40606075525283813,
            0.013817275874316692,
            0.08218038827180862,
            0.19429244101047516,
            -0.45481112599372864,
            -0.4904309809207916,
            -0.050782982259988785,
            -0.4654389023780823,
            0.4996097981929779,
            0.5520361065864563,
            0.12163519114255905,
            0.501370370388031,
            -0.5321926474571228,
            -0.21510227024555206,
            0.2771698534488678,
            0.014994875527918339,
            0.11267620325088501,
            0.2193252146244049
          ],
          "shape": {
            "dim": [
              8,
              48
            ]
          }
        },
        {
          "data": [
            -0.21144922077655792,
            0.06758158653974533,
            0.7455184459686279,
            0.22513024508953094,
            -0.19740845263004303,
            -0.0679553970694542,
            0.9871458411216736,
            0.10347020626068115
          ],
          "shape": {
            "dim": [
              8
            ]
          }
        }
      ],
      "phase": 0,
      "inner_product_param": {
        "num_output": 8,
        "weight_filler": {
          "type": "xavier"
        },
        "bias_filler": {
          "type": "constant"
        }
      }
    },
    {
      "name": "relu1",
      "type": "ReLU",
      "bottom": [
        "ip1"
      ],
      "top": [
        "relu1"
      ],
      "phase": 0
    },
    {
      "name": "ip2",
      "type": "InnerProduct",
      "bottom": [
        "relu1"
      ],
      "top": [
        "ip2"
      ],
      "param": [
        {
          "lr_mult": 1.0
        },
        {
          "lr_mult": 2.0
        }
      ],
      "blobs": [
        {
          "data": [
            0.9459919333457947,
            -0.3040851950645447,
            0.9579584002494812,
            -0.6361848711967468,
            0.20402824878692627,
            -0.006253860425204039,
            -0.6065850257873535,
            -0.5039197206497192,
            -0.595109224319458,
            0.3396879732608795,
            0.39529186487197876,
            -0.3885939419269562,
            -1.0675361156463623,
            1.1605784893035889,
            0.8326151967048645,
            -0.5457495450973511,
            -0.028151122853159904,
            -0.8834854364395142,
            0.5452695488929749,
            -0.14348511397838593,
            -0.585564374923706,
            -0.33148664236068726,
            0.7416146397590637,
            0.8580297231674194,
            -0.6785588264465332,
            -0.6473654508590698,
            0.32407036423683167,
            0.3841528296470642,
            0.7953763008117676,
            -0.7343718409538269,
            0.7901689410209656,
            -0.22686606645584106,
            0.512167751789093,
            0.6937813758850098,
            -1.1976886987686157,
            0.9973856210708618,
            -0.8546008467674255,
            -0.2918910086154938,
            0.40350326895713806,
            -0.32890114188194275,
            -0.5133886933326721,
            -0.3188015818595886,
            -0.3223859667778015,
            -0.11476794630289078,
            1.5014138221740723,
            0.41430723667144775,
            -0.8679616451263428,
            -0.2598188519477844,
            1.3909294605255127,
            0.24952711164951324,
            -0.6008414030075073,
            -1.1870415210723877,
            0.40156546235084534,
            0.09406667202711105,
            -0.3364250659942627,
            -0.5404908061027527,
            -0.585267961025238,
            0.2599196135997772,
            0.7825236916542053,
            0.8958365321159363,
            -1.0608289241790771,
            -0.32843729853630066,
            -0.015798917040228844,
            -0.2767893075942993,
            -0.19153118133544922,
            0.9729008078575134,
            0.025970151647925377,
            -0.5417065620422363,
            0.533839762210846,
            -0.38387933373451233,
            -0.11662586778402328,
            0.8732579946517944,
            0.0784948468208313,
            -0.11652875691652298,
            -0.3393746316432953,
            1.0645198822021484,
            0.13769593834877014,
            0.5398557782173157,
            -0.969749927520752,
            0.6932595372200012
          ],
          "shape": {
            "dim": [
              10,
              8
            ]
          }
        },
        {
          "data": [
            -0.708708643913269,
            0.14700329303741455,
            0.8823019862174988,
            -0.6866139769554138,
            -0.13612256944179535,
            1.1252045631408691,
            -2.7884103474207222e-05,
            0.5962927341461182,
            -0.5806059837341309,
            -0.6387280225753784
          ],
          "shape": {
            "dim": [
              10
            ]
          }
        }
      ],
      "phase": 0,
      "inner_product_param": {
        "num_output": 10,
        "weight_filler": {
          "type": "xavier"
        },
        "bias_filler": {
          "type": "constant"
        }
      }
    },
    {
      "name": "ip2_ip2_0_split",
      "type": "Split",
      "bottom": [
        "ip2"
      ],
      "top": [
        "ip2_ip2_0_split_0",
        "ip2_ip2_0_split_1"
      ],
      "phase": 0
    },
    {
      "name": "accuracy",
      "type": "Accuracy",
      "bottom": [
        "ip2_ip2_0_split_0",
        "label_mnist_1_split_0"
      ],
      "top": [
        "accuracy"
      ],
      "phase": 0
    },
    {
      "name": "loss",
      "type": "SoftmaxWithLoss",
      "bottom": [
        "ip2_ip2_0_split_1",
        "label_mnist_1_split_1"
      ],
      "top": [
        "loss"
      ],
      "loss_weight": [
        1.0
      ],
      "phase": 0
    }
  ]
}